{"feats": ["t", "eou_idx", "utt_dur", "slots_missing", "f_final", "f_hesitant", "f_unfinished"], "mean": [2.014184841780489, 1.0673603418011217, 2.939696481370137, 0.08410758101429355, 0.6166545516875795, 0.24309208124759948, 0.14025336706482094], "std": [1.2879021053578437, 1.103352039714346, 1.2118756359118645, 0.2775490872447325, 0.48620131177329606, 0.4289502550195842, 0.34724970855455833], "t_grid": [0.0, 0.25, 0.5, 0.75, 1.0, 1.25, 1.5, 1.75, 2.0, 2.25, 2.5, 2.75, 3.0, 3.25, 3.5, 3.75, 4.0, 4.25], "w_cap": 4.0, "policy": "twostage", "theta": 0.002, "w_protect": 1.5, "risk_horizon": 2.5, "grace": 1.0, "c_w": null, "version": "stophead_v2_mlp", "arch": "mlp", "W1": [[-0.21121183471186236, -2.0215642574936656, -0.24008106543893634, 2.3198020499099874, 0.18177358441010305, 0.1558838947178498, -0.25446443585076384], [-0.2498217004343904, -1.5579224890181975, -0.18610383813603534, 1.916571799155399, -0.07695257059923065, -0.29538086134463415, -0.03660387722610424], [0.3145994798471015, 0.06954668523133926, 0.27792671690984416, 0.20516603921145918, 0.4881123835154595, -0.16855916757378342, -0.2080732415134592], [0.1200638742766407, 1.3704047611532741, 0.22527484372769316, -0.1282589516644693, 0.3738483631470385, 0.36905324287711816, -1.8342071365017558], [-1.2841782531883177, -0.01563629572280315, 0.009890222539246573, 0.0704489628895507, 0.4262269682070755, -1.2384980317418854, 0.35410867222908754], [2.568466837319022, 0.027910393702760994, -0.15275072794402403, 0.8174138480206891, -0.8717392683245644, 0.43371527948619376, 0.3458931976344581], [3.4406604386162196, -0.023758546332096585, -0.01732642786442792, 0.015683725857277533, 0.010261361664098662, 0.009628393671585056, 0.04340145430588848], [0.9827531612144768, 0.23318554241405445, 0.6312265316986724, 0.258368725981774, 0.33879546486058354, 0.3208574556671196, -0.4292131316207206], [-3.0694187642166497, -0.027570751493335193, -0.06876026423293198, 0.14440379782338997, 0.19716509396789694, 0.21624242258806436, 0.2133141717997951], [-1.607070746324228, -0.10810109988029504, -0.07894449224730993, -0.050706356336636976, 0.2777029073589221, 0.6155821208517943, -1.1720434572626308], [1.2641381892527406, -0.18624442625606533, -0.09496382463509954, 0.08107673335001925, 1.2424146711461461, -0.5995535549489709, -0.738204240069161], [0.3213705086438188, -0.6623547989815997, 0.6074300085152582, -0.04571127612904029, -0.31968852507633816, 0.23848303082477226, 0.11216060721875276], [-3.260649991811703, 0.03484246988564087, 0.016734517597401098, -0.01573591768214669, -0.3520526055396116, -0.3152062878561947, -0.2929801663031], [1.010074623526071, 0.1781339586730415, 0.49451035737466387, -0.08139620647832502, 0.8099969151908266, -0.40414363549937066, -0.30615354530477223], [-1.5986446806638657, -0.3424728487982054, 0.38258227279628365, 1.503351170636968, -0.01972215639281171, -0.026653739884676092, -0.0628259719621022], [0.11205449893313547, 0.2076953969541926, 0.996656350942399, -0.6519088518586995, 0.11131538936356501, 0.12524048535328494, 0.45247492704107284]], "b1": [-1.2329044823064714, -1.0734694824714983, -0.46103958497085856, 0.6593875838462597, -0.16732217552196577, -0.14788939947401097, 1.4948924515543949, -0.4371108623941349, -0.03392452526890179, 0.23481340539265708, 1.3360208154238014, -0.04556746864062032, -1.42720617947221, 1.2530252442859813, -0.3328472248885467, -0.31829030241738726], "W2": [0.760006137467633, 0.6745233757137232, 0.15520903389476956, -0.43661093804019485, 1.1557348277178283, 0.6641813534211743, 2.4985989282494416, 0.8269328872665104, 1.1243545041033969, 1.0738884132005413, -0.5744113336219244, -0.32883111210512284, -1.7137886284477672, -0.6514745099267489, -1.0966394689337662, 0.4721013872166126], "b2": -6.553669722782956}