{"feats": ["t", "eou_idx", "utt_dur", "slots_missing", "f_final", "f_hesitant", "f_unfinished"], "mean": [2.0228903295347633, 1.0601935214549623, 4.003811739211652, 0.09135259409715948, 0.5544863207870454, 0.09993831737269392, 0.34557536184026066], "std": [1.2799733760675693, 1.0988259886453577, 1.710593090985902, 0.2881098707949002, 0.49702237459507337, 0.29991773887755263, 0.4755554974223996], "t_grid": [0.0, 0.25, 0.5, 0.75, 1.0, 1.25, 1.5, 1.75, 2.0, 2.25, 2.5, 2.75, 3.0, 3.25, 3.5, 3.75, 4.0, 4.25], "w_cap": 4.0, "policy": "twostage", "theta": 0.02, "w_protect": 1.5, "risk_horizon": 2.5, "grace": 1.0, "c_w": null, "version": "stophead_v3c1_mlp", "arch": "mlp", "W1": [[-0.17054776662362636, -1.985272702954513, -0.2786115924793097, 2.430420879658961, 0.14190731038463156, -0.10643464668026888, 0.02634756260159253], [0.10415960224419493, -1.8767554571774374, -0.41639028988979915, 0.14816698460477035, -0.050319116832726975, -0.1569220511083606, -0.18605879912219322], [-0.4233725018267749, 0.5282665070041127, 0.431886662786089, 0.13596423115205825, 0.6030805267659969, -0.18260466759224098, -0.4847156084732848], [0.9558536325609477, -0.126322358561832, 0.0661981705457112, -0.5901477055315535, 0.7105974061373855, -0.788759411110495, -0.4914715452139439], [-0.18737021618140942, 0.08015910840520299, 0.07331185059888039, 0.11450117722800089, 0.13549715567262482, -0.2519321632563, 0.2607920983583615], [1.434492611254314, 0.053809093143100714, 0.16462173700192392, 1.335401028665112, -1.2934299937458165, 0.5809360158097903, 0.9023948955949394], [3.117019785387676, -0.02359737833054181, 0.10331335269465435, -0.022253565098741337, 0.04513529683634067, -0.006682503687237761, 0.03546132015959987], [-0.5900138354814676, 0.14246934386918028, 0.4937047267983248, 0.04341114347353532, 0.6013070027727453, 0.23848107948984906, -0.7475003143361343], [0.13402455154524734, -0.04974550636457095, -0.08031370973656517, 0.3342320465139082, 0.07340411378528029, 0.21273514660869133, 0.45908114539361533], [-1.3459691326931504, -0.17048907542647243, 0.1499290977796031, 0.09560412310478876, -0.11366736934670595, -0.2769958515224435, -0.3498137250352198], [0.8548067385701738, -0.6686493863420752, -0.662657388362543, -0.09154133052004812, 1.124905681391277, -0.604295210868988, -0.7882827761306362], [-0.027255038598286166, -0.3907065627225811, 0.9048809716650457, -0.19017482543024652, -0.2992179588631883, 0.2533311460665672, 0.06614074619094407], [-3.4409715295804544, 0.015372516417509073, -0.06345619966995422, 0.028693033925885333, -0.37105957861005723, -0.1884186368259996, -0.3368865401017821], [0.2647758314197221, 0.04010493931113119, 0.29851474115978915, -0.2746970089956836, 0.6177081999274263, -0.2581808920263787, -0.2475531091538922], [-0.43640843687866854, -0.4624660331158708, 1.6288696567145986, 0.10898060442877865, -0.1169816572953827, 0.00901136126564097, 0.07794062287146034], [1.2412293544606476, 0.29516347456606157, -1.0563391565487419, 1.6693176653458086, 0.35009009679664665, 0.1501415382851337, 0.06126213611744325]], "b1": [-1.0460336590180455, -2.1385893747056666, -0.7561540478837412, 0.6974860418033804, -0.8345767233958329, -1.6486995028098224, 0.8527145336427427, -0.4139411836037785, 1.5410971696248135, 1.116645230767631, 1.1228770163124175, -0.8742428840145098, -0.8809653248766004, 0.6527571404329907, 0.3063614012231318, -1.6155354263010573], "W2": [0.7335137672289631, 0.8260856718180918, 0.36984819676841774, -0.5083217390360892, 0.8803168024290945, 0.8217737980934608, 2.7954850675298317, 0.9687991784491794, -0.49893203421086496, 1.3886800716438432, -0.49398043943079567, -0.39329198655081377, -1.7685579297026752, -0.4594570692317235, -0.6624953305938261, -0.8979902151430634], "b2": -6.248335034609794}